digraph Tree {
node [shape=box, style="filled, rounded", color="black", fontname=helvetica] ;
edge [fontname=helvetica] ;
0 [label="X[1] <= 190.5\nmse = 61.999\nsamples = 313\nvalue = 23.641", fillcolor="#f5ceb2"] ;
1 [label="X[2] <= 70.5\nmse = 34.764\nsamples = 181\nvalue = 28.746", fillcolor="#f1bd97"] ;
0 -> 1 [labeldistance=2.5, labelangle=45, headlabel="True"] ;
2 [label="X[5] <= 77.5\nmse = 21.376\nsamples = 58\nvalue = 33.938", fillcolor="#eeab7c"] ;
1 -> 2 ;
3 [label="X[3] <= 1829.5\nmse = 7.738\nsamples = 21\nvalue = 30.5", fillcolor="#f0b78e"] ;
2 -> 3 ;
4 [label="X[4] <= 18.8\nmse = 3.04\nsamples = 5\nvalue = 33.6", fillcolor="#eead7d"] ;
3 -> 4 ;
5 [label="X[2] <= 55.5\nmse = 1.688\nsamples = 4\nvalue = 34.25", fillcolor="#eeaa7a"] ;
4 -> 5 ;
6 [label="mse = 0.0\nsamples = 2\nvalue = 33.0", fillcolor="#eeaf81"] ;
5 -> 6 ;
7 [label="X[2] <= 63.5\nmse = 0.25\nsamples = 2\nvalue = 35.5", fillcolor="#eda673"] ;
5 -> 7 ;
8 [label="mse = 0.0\nsamples = 1\nvalue = 36.0", fillcolor="#eca571"] ;
7 -> 8 ;
9 [label="mse = 0.0\nsamples = 1\nvalue = 35.0", fillcolor="#eda876"] ;
7 -> 9 ;
10 [label="mse = 0.0\nsamples = 1\nvalue = 31.0", fillcolor="#f0b58b"] ;
4 -> 10 ;
11 [label="X[5] <= 73.5\nmse = 5.265\nsamples = 16\nvalue = 29.531", fillcolor="#f1ba93"] ;
3 -> 11 ;
12 [label="X[1] <= 85.0\nmse = 2.556\nsamples = 6\nvalue = 27.333", fillcolor="#f2c29e"] ;
11 -> 12 ;
13 [label="X[3] <= 1970.5\nmse = 0.25\nsamples = 2\nvalue = 29.5", fillcolor="#f1ba93"] ;
12 -> 13 ;
14 [label="mse = 0.0\nsamples = 1\nvalue = 29.0", fillcolor="#f1bc96"] ;
13 -> 14 ;
15 [label="mse = 0.0\nsamples = 1\nvalue = 30.0", fillcolor="#f0b990"] ;
13 -> 15 ;
16 [label="X[3] <= 1892.0\nmse = 0.188\nsamples = 4\nvalue = 26.25", fillcolor="#f3c5a4"] ;
12 -> 16 ;
17 [label="mse = 0.0\nsamples = 1\nvalue = 27.0", fillcolor="#f3c3a0"] ;
16 -> 17 ;
18 [label="mse = 0.0\nsamples = 3\nvalue = 26.0", fillcolor="#f3c6a5"] ;
16 -> 18 ;
19 [label="X[4] <= 16.6\nmse = 2.252\nsamples = 10\nvalue = 30.85", fillcolor="#f0b68c"] ;
11 -> 19 ;
20 [label="X[4] <= 15.3\nmse = 0.222\nsamples = 3\nvalue = 29.333", fillcolor="#f1bb94"] ;
19 -> 20 ;
21 [label="mse = 0.0\nsamples = 2\nvalue = 29.0", fillcolor="#f1bc96"] ;
20 -> 21 ;
22 [label="mse = 0.0\nsamples = 1\nvalue = 30.0", fillcolor="#f0b990"] ;
20 -> 22 ;
23 [label="X[4] <= 21.6\nmse = 1.714\nsamples = 7\nvalue = 31.5", fillcolor="#efb489"] ;
19 -> 23 ;
24 [label="X[4] <= 16.9\nmse = 0.785\nsamples = 6\nvalue = 31.917", fillcolor="#efb286"] ;
23 -> 24 ;
25 [label="mse = 0.0\nsamples = 1\nvalue = 33.5", fillcolor="#eead7e"] ;
24 -> 25 ;
26 [label="X[3] <= 2048.0\nmse = 0.34\nsamples = 5\nvalue = 31.6", fillcolor="#efb388"] ;
24 -> 26 ;
27 [label="X[1] <= 91.5\nmse = 0.047\nsamples = 4\nvalue = 31.875", fillcolor="#efb287"] ;
26 -> 27 ;
28 [label="mse = 0.0\nsamples = 3\nvalue = 32.0", fillcolor="#efb286"] ;
27 -> 28 ;
29 [label="mse = 0.0\nsamples = 1\nvalue = 31.5", fillcolor="#efb489"] ;
27 -> 29 ;
30 [label="mse = 0.0\nsamples = 1\nvalue = 30.5", fillcolor="#f0b78e"] ;
26 -> 30 ;
31 [label="mse = 0.0\nsamples = 1\nvalue = 29.0", fillcolor="#f1bc96"] ;
23 -> 31 ;
32 [label="X[3] <= 2132.5\nmse = 18.6\nsamples = 37\nvalue = 35.889", fillcolor="#eca571"] ;
2 -> 32 ;
33 [label="X[4] <= 17.85\nmse = 18.152\nsamples = 27\nvalue = 37.07", fillcolor="#eca16b"] ;
32 -> 33 ;
34 [label="X[4] <= 14.25\nmse = 11.767\nsamples = 19\nvalue = 35.679", fillcolor="#eda673"] ;
33 -> 34 ;
35 [label="mse = 0.0\nsamples = 1\nvalue = 44.6", fillcolor="#e68844"] ;
34 -> 35 ;
36 [label="X[4] <= 17.45\nmse = 7.754\nsamples = 18\nvalue = 35.183", fillcolor="#eda775"] ;
34 -> 36 ;
37 [label="X[4] <= 16.15\nmse = 6.914\nsamples = 16\nvalue = 35.625", fillcolor="#eda673"] ;
36 -> 37 ;
38 [label="X[3] <= 2122.5\nmse = 6.667\nsamples = 8\nvalue = 34.062", fillcolor="#eeab7b"] ;
37 -> 38 ;
39 [label="X[1] <= 87.5\nmse = 3.129\nsamples = 6\nvalue = 32.867", fillcolor="#eeaf81"] ;
38 -> 39 ;
40 [label="X[2] <= 62.5\nmse = 0.25\nsamples = 2\nvalue = 34.6", fillcolor="#eda978"] ;
39 -> 40 ;
41 [label="mse = 0.0\nsamples = 1\nvalue = 35.1", fillcolor="#eda876"] ;
40 -> 41 ;
42 [label="mse = 0.0\nsamples = 1\nvalue = 34.1", fillcolor="#eeab7b"] ;
40 -> 42 ;
43 [label="X[1] <= 90.0\nmse = 2.315\nsamples = 4\nvalue = 32.0", fillcolor="#efb286"] ;
39 -> 43 ;
44 [label="mse = 0.0\nsamples = 1\nvalue = 29.8", fillcolor="#f1b991"] ;
43 -> 44 ;
45 [label="X[4] <= 15.85\nmse = 0.936\nsamples = 3\nvalue = 32.733", fillcolor="#efaf82"] ;
43 -> 45 ;
46 [label="X[1] <= 94.5\nmse = 0.003\nsamples = 2\nvalue = 32.05", fillcolor="#efb286"] ;
45 -> 46 ;
47 [label="mse = 0.0\nsamples = 1\nvalue = 32.0", fillcolor="#efb286"] ;
46 -> 47 ;
48 [label="mse = 0.0\nsamples = 1\nvalue = 32.1", fillcolor="#efb285"] ;
46 -> 48 ;
49 [label="mse = 0.0\nsamples = 1\nvalue = 34.1", fillcolor="#eeab7b"] ;
45 -> 49 ;
50 [label="X[5] <= 80.5\nmse = 0.122\nsamples = 2\nvalue = 37.65", fillcolor="#eb9f68"] ;
38 -> 50 ;
51 [label="mse = 0.0\nsamples = 1\nvalue = 37.3", fillcolor="#eba06a"] ;
50 -> 51 ;
52 [label="mse = 0.0\nsamples = 1\nvalue = 38.0", fillcolor="#eb9e66"] ;
50 -> 52 ;
53 [label="X[1] <= 94.5\nmse = 2.279\nsamples = 8\nvalue = 37.188", fillcolor="#eca16b"] ;
37 -> 53 ;
54 [label="X[5] <= 80.5\nmse = 1.069\nsamples = 6\nvalue = 37.85", fillcolor="#eb9e67"] ;
53 -> 54 ;
55 [label="X[5] <= 79.0\nmse = 0.302\nsamples = 2\nvalue = 36.65", fillcolor="#eca26d"] ;
54 -> 55 ;
56 [label="mse = 0.0\nsamples = 1\nvalue = 36.1", fillcolor="#eca470"] ;
55 -> 56 ;
57 [label="mse = -0.0\nsamples = 1\nvalue = 37.2", fillcolor="#eca06a"] ;
55 -> 57 ;
58 [label="X[3] <= 1935.0\nmse = 0.373\nsamples = 4\nvalue = 38.45", fillcolor="#eb9c64"] ;
54 -> 58 ;
59 [label="X[1] <= 82.5\nmse = 0.003\nsamples = 2\nvalue = 39.05", fillcolor="#ea9a61"] ;
58 -> 59 ;
60 [label="mse = 0.0\nsamples = 1\nvalue = 39.1", fillcolor="#ea9a60"] ;
59 -> 60 ;
61 [label="mse = 0.0\nsamples = 1\nvalue = 39.0", fillcolor="#ea9a61"] ;
59 -> 61 ;
62 [label="X[5] <= 81.5\nmse = 0.022\nsamples = 2\nvalue = 37.85", fillcolor="#eb9e67"] ;
58 -> 62 ;
63 [label="mse = 0.0\nsamples = 1\nvalue = 37.7", fillcolor="#eb9f68"] ;
62 -> 63 ;
64 [label="mse = -0.0\nsamples = 1\nvalue = 38.0", fillcolor="#eb9e66"] ;
62 -> 64 ;
65 [label="X[3] <= 2085.0\nmse = 0.64\nsamples = 2\nvalue = 35.2", fillcolor="#eda775"] ;
53 -> 65 ;
66 [label="mse = 0.0\nsamples = 1\nvalue = 34.4", fillcolor="#edaa79"] ;
65 -> 66 ;
67 [label="mse = -0.0\nsamples = 1\nvalue = 36.0", fillcolor="#eca571"] ;
65 -> 67 ;
68 [label="X[2] <= 67.5\nmse = 0.423\nsamples = 2\nvalue = 31.65", fillcolor="#efb388"] ;
36 -> 68 ;
69 [label="mse = 0.0\nsamples = 1\nvalue = 32.3", fillcolor="#efb184"] ;
68 -> 69 ;
70 [label="mse = 0.0\nsamples = 1\nvalue = 31.0", fillcolor="#f0b58b"] ;
68 -> 70 ;
71 [label="X[3] <= 2077.5\nmse = 17.797\nsamples = 8\nvalue = 40.375", fillcolor="#e9965a"] ;
33 -> 71 ;
72 [label="X[1] <= 81.5\nmse = 6.122\nsamples = 4\nvalue = 36.825", fillcolor="#eca26c"] ;
71 -> 72 ;
73 [label="mse = 0.0\nsamples = 1\nvalue = 32.8", fillcolor="#efaf82"] ;
72 -> 73 ;
74 [label="X[3] <= 2022.5\nmse = 0.962\nsamples = 3\nvalue = 38.167", fillcolor="#eb9d65"] ;
72 -> 74 ;
75 [label="X[1] <= 87.0\nmse = 0.303\nsamples = 2\nvalue = 37.55", fillcolor="#eb9f69"] ;
74 -> 75 ;
76 [label="mse = 0.0\nsamples = 1\nvalue = 37.0", fillcolor="#eca16c"] ;
75 -> 76 ;
77 [label="mse = 0.0\nsamples = 1\nvalue = 38.1", fillcolor="#eb9d66"] ;
75 -> 77 ;
78 [label="mse = -0.0\nsamples = 1\nvalue = 39.4", fillcolor="#ea995f"] ;
74 -> 78 ;
79 [label="X[1] <= 85.5\nmse = 4.267\nsamples = 4\nvalue = 43.925", fillcolor="#e78a47"] ;
71 -> 79 ;
80 [label="mse = 0.0\nsamples = 1\nvalue = 40.8", fillcolor="#e99458"] ;
79 -> 80 ;
81 [label="X[1] <= 88.0\nmse = 1.349\nsamples = 3\nvalue = 44.967", fillcolor="#e68642"] ;
79 -> 81 ;
82 [label="mse = 0.0\nsamples = 1\nvalue = 46.6", fillcolor="#e58139"] ;
81 -> 82 ;
83 [label="X[3] <= 2107.5\nmse = 0.022\nsamples = 2\nvalue = 44.15", fillcolor="#e78946"] ;
81 -> 83 ;
84 [label="mse = 0.0\nsamples = 1\nvalue = 44.3", fillcolor="#e78945"] ;
83 -> 84 ;
85 [label="mse = 0.0\nsamples = 1\nvalue = 44.0", fillcolor="#e78a47"] ;
83 -> 85 ;
86 [label="X[1] <= 101.5\nmse = 5.874\nsamples = 10\nvalue = 32.7", fillcolor="#efb082"] ;
32 -> 86 ;
87 [label="X[1] <= 97.5\nmse = 3.035\nsamples = 4\nvalue = 30.8", fillcolor="#f0b68c"] ;
86 -> 87 ;
88 [label="mse = 0.0\nsamples = 1\nvalue = 33.8", fillcolor="#eeac7c"] ;
87 -> 88 ;
89 [label="X[3] <= 2145.0\nmse = 0.047\nsamples = 3\nvalue = 29.8", fillcolor="#f1b991"] ;
87 -> 89 ;
90 [label="mse = 0.0\nsamples = 1\nvalue = 29.5", fillcolor="#f1ba93"] ;
89 -> 90 ;
91 [label="X[4] <= 18.6\nmse = 0.002\nsamples = 2\nvalue = 29.95", fillcolor="#f1b991"] ;
89 -> 91 ;
92 [label="mse = 0.0\nsamples = 1\nvalue = 30.0", fillcolor="#f0b990"] ;
91 -> 92 ;
93 [label="mse = -0.0\nsamples = 1\nvalue = 29.9", fillcolor="#f1b991"] ;
91 -> 93 ;
94 [label="X[3] <= 3100.0\nmse = 3.756\nsamples = 6\nvalue = 33.967", fillcolor="#eeab7c"] ;
86 -> 94 ;
95 [label="X[4] <= 18.4\nmse = 0.73\nsamples = 5\nvalue = 34.76", fillcolor="#eda977"] ;
94 -> 95 ;
96 [label="X[5] <= 81.5\nmse = 0.072\nsamples = 4\nvalue = 34.35", fillcolor="#edaa7a"] ;
95 -> 96 ;
97 [label="X[4] <= 14.05\nmse = 0.042\nsamples = 3\nvalue = 34.467", fillcolor="#edaa79"] ;
96 -> 97 ;
98 [label="mse = 0.0\nsamples = 1\nvalue = 34.2", fillcolor="#eeab7a"] ;
97 -> 98 ;
99 [label="X[3] <= 2182.5\nmse = 0.01\nsamples = 2\nvalue = 34.6", fillcolor="#eda978"] ;
97 -> 99 ;
100 [label="mse = 0.0\nsamples = 1\nvalue = 34.5", fillcolor="#edaa79"] ;
99 -> 100 ;
101 [label="mse = 0.0\nsamples = 1\nvalue = 34.7", fillcolor="#eda978"] ;
99 -> 101 ;
102 [label="mse = 0.0\nsamples = 1\nvalue = 34.0", fillcolor="#eeab7b"] ;
96 -> 102 ;
103 [label="mse = -0.0\nsamples = 1\nvalue = 36.4", fillcolor="#eca36f"] ;
95 -> 103 ;
104 [label="mse = 0.0\nsamples = 1\nvalue = 30.0", fillcolor="#f0b990"] ;
94 -> 104 ;
105 [label="X[5] <= 78.5\nmse = 22.375\nsamples = 123\nvalue = 26.298", fillcolor="#f3c5a4"] ;
1 -> 105 ;
106 [label="X[3] <= 2781.0\nmse = 11.297\nsamples = 75\nvalue = 24.001", fillcolor="#f5cdb0"] ;
105 -> 106 ;
107 [label="X[3] <= 2305.0\nmse = 8.178\nsamples = 61\nvalue = 24.931", fillcolor="#f4caab"] ;
106 -> 107 ;
108 [label="X[0] <= 3.5\nmse = 7.559\nsamples = 31\nvalue = 26.245", fillcolor="#f3c5a4"] ;
107 -> 108 ;
109 [label="mse = 0.0\nsamples = 1\nvalue = 18.0", fillcolor="#f9e1d0"] ;
108 -> 109 ;
110 [label="X[4] <= 18.6\nmse = 5.47\nsamples = 30\nvalue = 26.52", fillcolor="#f3c4a3"] ;
108 -> 110 ;
111 [label="X[3] <= 2086.5\nmse = 4.142\nsamples = 29\nvalue = 26.745", fillcolor="#f3c4a2"] ;
110 -> 111 ;
112 [label="X[5] <= 73.5\nmse = 0.167\nsamples = 3\nvalue = 29.5", fillcolor="#f1ba93"] ;
111 -> 112 ;
113 [label="mse = 0.0\nsamples = 1\nvalue = 30.0", fillcolor="#f0b990"] ;
112 -> 113 ;
114 [label="X[5] <= 76.5\nmse = 0.062\nsamples = 2\nvalue = 29.25", fillcolor="#f1bb94"] ;
112 -> 114 ;
115 [label="mse = 0.0\nsamples = 1\nvalue = 29.5", fillcolor="#f1ba93"] ;
114 -> 115 ;
116 [label="mse = 0.0\nsamples = 1\nvalue = 29.0", fillcolor="#f1bc96"] ;
114 -> 116 ;
117 [label="X[5] <= 76.5\nmse = 3.624\nsamples = 26\nvalue = 26.427", fillcolor="#f3c5a3"] ;
111 -> 117 ;
118 [label="X[1] <= 97.25\nmse = 2.522\nsamples = 21\nvalue = 26.048", fillcolor="#f3c6a5"] ;
117 -> 118 ;
119 [label="X[1] <= 93.5\nmse = 2.438\nsamples = 8\nvalue = 26.75", fillcolor="#f3c4a2"] ;
118 -> 119 ;
120 [label="X[5] <= 74.5\nmse = 0.25\nsamples = 2\nvalue = 24.5", fillcolor="#f4cbad"] ;
119 -> 120 ;
121 [label="mse = 0.0\nsamples = 1\nvalue = 24.0", fillcolor="#f5cdb0"] ;
120 -> 121 ;
122 [label="mse = 0.0\nsamples = 1\nvalue = 25.0", fillcolor="#f4c9ab"] ;
120 -> 122 ;
123 [label="X[4] <= 15.25\nmse = 0.917\nsamples = 6\nvalue = 27.5", fillcolor="#f2c19e"] ;
119 -> 123 ;
124 [label="X[5] <= 72.5\nmse = 0.222\nsamples = 3\nvalue = 26.667", fillcolor="#f3c4a2"] ;
123 -> 124 ;
125 [label="mse = 0.0\nsamples = 2\nvalue = 27.0", fillcolor="#f3c3a0"] ;
124 -> 125 ;
126 [label="mse = 0.0\nsamples = 1\nvalue = 26.0", fillcolor="#f3c6a5"] ;
124 -> 126 ;
127 [label="X[4] <= 16.2\nmse = 0.222\nsamples = 3\nvalue = 28.333", fillcolor="#f2be99"] ;
123 -> 127 ;
128 [label="mse = 0.0\nsamples = 1\nvalue = 29.0", fillcolor="#f1bc96"] ;
127 -> 128 ;
129 [label="mse = 0.0\nsamples = 2\nvalue = 28.0", fillcolor="#f2bf9b"] ;
127 -> 129 ;
130 [label="X[3] <= 2124.5\nmse = 2.083\nsamples = 13\nvalue = 25.615", fillcolor="#f4c7a8"] ;
118 -> 130 ;
131 [label="mse = 0.0\nsamples = 1\nvalue = 28.0", fillcolor="#f2bf9b"] ;
130 -> 131 ;
132 [label="X[1] <= 131.0\nmse = 1.743\nsamples = 12\nvalue = 25.417", fillcolor="#f4c8a9"] ;
130 -> 132 ;
133 [label="X[1] <= 121.5\nmse = 1.24\nsamples = 11\nvalue = 25.182", fillcolor="#f4c9aa"] ;
132 -> 133 ;
134 [label="X[4] <= 15.4\nmse = 0.84\nsamples = 10\nvalue = 25.4", fillcolor="#f4c8a9"] ;
133 -> 134 ;
135 [label="X[3] <= 2215.0\nmse = 0.5\nsamples = 4\nvalue = 26.0", fillcolor="#f3c6a5"] ;
134 -> 135 ;
136 [label="mse = 0.0\nsamples = 1\nvalue = 27.0", fillcolor="#f3c3a0"] ;
135 -> 136 ;
137 [label="X[1] <= 114.5\nmse = 0.222\nsamples = 3\nvalue = 25.667", fillcolor="#f3c7a7"] ;
135 -> 137 ;
138 [label="mse = 0.0\nsamples = 1\nvalue = 25.0", fillcolor="#f4c9ab"] ;
137 -> 138 ;
139 [label="mse = 0.0\nsamples = 2\nvalue = 26.0", fillcolor="#f3c6a5"] ;
137 -> 139 ;
140 [label="X[1] <= 105.5\nmse = 0.667\nsamples = 6\nvalue = 25.0", fillcolor="#f4c9ab"] ;
134 -> 140 ;
141 [label="X[5] <= 72.5\nmse = 0.222\nsamples = 3\nvalue = 25.667", fillcolor="#f3c7a7"] ;
140 -> 141 ;
142 [label="mse = 0.0\nsamples = 1\nvalue = 25.0", fillcolor="#f4c9ab"] ;
141 -> 142 ;
143 [label="mse = 0.0\nsamples = 2\nvalue = 26.0", fillcolor="#f3c6a5"] ;
141 -> 143 ;
144 [label="X[4] <= 16.2\nmse = 0.222\nsamples = 3\nvalue = 24.333", fillcolor="#f4ccae"] ;
140 -> 144 ;
145 [label="mse = 0.0\nsamples = 2\nvalue = 24.0", fillcolor="#f5cdb0"] ;
144 -> 145 ;
146 [label="mse = 0.0\nsamples = 1\nvalue = 25.0", fillcolor="#f4c9ab"] ;
144 -> 146 ;
147 [label="mse = 0.0\nsamples = 1\nvalue = 23.0", fillcolor="#f5d0b5"] ;
133 -> 147 ;
148 [label="mse = 0.0\nsamples = 1\nvalue = 28.0", fillcolor="#f2bf9b"] ;
132 -> 148 ;
149 [label="X[3] <= 2247.5\nmse = 5.11\nsamples = 5\nvalue = 28.02", fillcolor="#f2bf9b"] ;
117 -> 149 ;
150 [label="X[5] <= 77.5\nmse = 0.04\nsamples = 2\nvalue = 30.7", fillcolor="#f0b68d"] ;
149 -> 150 ;
151 [label="mse = 0.0\nsamples = 1\nvalue = 30.5", fillcolor="#f0b78e"] ;
150 -> 151 ;
152 [label="mse = 0.0\nsamples = 1\nvalue = 30.9", fillcolor="#f0b68c"] ;
150 -> 152 ;
153 [label="X[2] <= 96.5\nmse = 0.509\nsamples = 3\nvalue = 26.233", fillcolor="#f3c5a4"] ;
149 -> 153 ;
154 [label="X[3] <= 2282.5\nmse = 0.062\nsamples = 2\nvalue = 25.75", fillcolor="#f3c7a7"] ;
153 -> 154 ;
155 [label="mse = 0.0\nsamples = 1\nvalue = 26.0", fillcolor="#f3c6a5"] ;
154 -> 155 ;
156 [label="mse = 0.0\nsamples = 1\nvalue = 25.5", fillcolor="#f4c8a8"] ;
154 -> 156 ;
157 [label="mse = 0.0\nsamples = 1\nvalue = 27.2", fillcolor="#f2c29f"] ;
153 -> 157 ;
158 [label="mse = 0.0\nsamples = 1\nvalue = 20.0", fillcolor="#f7dac5"] ;
110 -> 158 ;
159 [label="X[3] <= 2351.0\nmse = 5.189\nsamples = 30\nvalue = 23.573", fillcolor="#f5ceb2"] ;
107 -> 159 ;
160 [label="mse = 0.0\nsamples = 2\nvalue = 19.0", fillcolor="#f8ddca"] ;
159 -> 160 ;
161 [label="X[5] <= 73.5\nmse = 3.959\nsamples = 28\nvalue = 23.9", fillcolor="#f5cdb1"] ;
159 -> 161 ;
162 [label="X[5] <= 70.5\nmse = 2.446\nsamples = 11\nvalue = 22.909", fillcolor="#f5d0b6"] ;
161 -> 162 ;
163 [label="X[4] <= 16.25\nmse = 0.25\nsamples = 4\nvalue = 24.5", fillcolor="#f4cbad"] ;
162 -> 163 ;
164 [label="mse = 0.0\nsamples = 2\nvalue = 24.0", fillcolor="#f5cdb0"] ;
163 -> 164 ;
165 [label="mse = 0.0\nsamples = 2\nvalue = 25.0", fillcolor="#f4c9ab"] ;
163 -> 165 ;
166 [label="X[3] <= 2621.0\nmse = 1.429\nsamples = 7\nvalue = 22.0", fillcolor="#f6d3bb"] ;
162 -> 166 ;
167 [label="X[5] <= 72.5\nmse = 0.889\nsamples = 6\nvalue = 21.667", fillcolor="#f6d5bc"] ;
166 -> 167 ;
168 [label="X[4] <= 15.25\nmse = 0.188\nsamples = 4\nvalue = 22.25", fillcolor="#f6d3b9"] ;
167 -> 168 ;
169 [label="mse = 0.0\nsamples = 1\nvalue = 23.0", fillcolor="#f5d0b5"] ;
168 -> 169 ;
170 [label="mse = 0.0\nsamples = 3\nvalue = 22.0", fillcolor="#f6d3bb"] ;
168 -> 170 ;
171 [label="X[3] <= 2527.0\nmse = 0.25\nsamples = 2\nvalue = 20.5", fillcolor="#f7d8c2"] ;
167 -> 171 ;
172 [label="mse = 0.0\nsamples = 1\nvalue = 21.0", fillcolor="#f7d7c0"] ;
171 -> 172 ;
173 [label="mse = 0.0\nsamples = 1\nvalue = 20.0", fillcolor="#f7dac5"] ;
171 -> 173 ;
174 [label="mse = 0.0\nsamples = 1\nvalue = 24.0", fillcolor="#f5cdb0"] ;
166 -> 174 ;
175 [label="X[2] <= 94.0\nmse = 3.891\nsamples = 17\nvalue = 24.541", fillcolor="#f4cbad"] ;
161 -> 175 ;
176 [label="X[3] <= 2602.0\nmse = 1.712\nsamples = 9\nvalue = 25.511", fillcolor="#f4c8a8"] ;
175 -> 176 ;
177 [label="X[1] <= 107.5\nmse = 0.96\nsamples = 5\nvalue = 26.3", fillcolor="#f3c5a4"] ;
176 -> 177 ;
178 [label="mse = 0.0\nsamples = 1\nvalue = 28.0", fillcolor="#f2bf9b"] ;
177 -> 178 ;
179 [label="X[4] <= 16.75\nmse = 0.297\nsamples = 4\nvalue = 25.875", fillcolor="#f3c6a6"] ;
177 -> 179 ;
180 [label="X[4] <= 14.55\nmse = 0.056\nsamples = 3\nvalue = 26.167", fillcolor="#f3c5a5"] ;
179 -> 180 ;
181 [label="mse = 0.0\nsamples = 1\nvalue = 26.5", fillcolor="#f3c4a3"] ;
180 -> 181 ;
182 [label="mse = 0.0\nsamples = 2\nvalue = 26.0", fillcolor="#f3c6a5"] ;
180 -> 182 ;
183 [label="mse = 0.0\nsamples = 1\nvalue = 25.0", fillcolor="#f4c9ab"] ;
179 -> 183 ;
184 [label="X[5] <= 76.0\nmse = 0.902\nsamples = 4\nvalue = 24.525", fillcolor="#f4cbad"] ;
176 -> 184 ;
185 [label="mse = 0.0\nsamples = 1\nvalue = 23.0", fillcolor="#f5d0b5"] ;
184 -> 185 ;
186 [label="X[4] <= 15.9\nmse = 0.169\nsamples = 3\nvalue = 25.033", fillcolor="#f4c9ab"] ;
184 -> 186 ;
187 [label="X[5] <= 77.5\nmse = 0.04\nsamples = 2\nvalue = 25.3", fillcolor="#f4c8a9"] ;
186 -> 187 ;
188 [label="mse = 0.0\nsamples = 1\nvalue = 25.5", fillcolor="#f4c8a8"] ;
187 -> 188 ;
189 [label="mse = 0.0\nsamples = 1\nvalue = 25.1", fillcolor="#f4c9aa"] ;
187 -> 189 ;
190 [label="mse = 0.0\nsamples = 1\nvalue = 24.5", fillcolor="#f4cbad"] ;
186 -> 190 ;
191 [label="X[1] <= 97.5\nmse = 4.092\nsamples = 8\nvalue = 23.45", fillcolor="#f5cfb3"] ;
175 -> 191 ;
192 [label="mse = 0.0\nsamples = 1\nvalue = 21.5", fillcolor="#f6d5bd"] ;
191 -> 192 ;
193 [label="X[4] <= 13.15\nmse = 4.056\nsamples = 7\nvalue = 23.729", fillcolor="#f5ceb1"] ;
191 -> 193 ;
194 [label="mse = 0.0\nsamples = 1\nvalue = 21.5", fillcolor="#f6d5bd"] ;
193 -> 194 ;
195 [label="X[4] <= 14.5\nmse = 3.767\nsamples = 6\nvalue = 24.1", fillcolor="#f5ccaf"] ;
193 -> 195 ;
196 [label="X[4] <= 13.85\nmse = 1.562\nsamples = 2\nvalue = 26.25", fillcolor="#f3c5a4"] ;
195 -> 196 ;
197 [label="mse = 0.0\nsamples = 1\nvalue = 25.0", fillcolor="#f4c9ab"] ;
196 -> 197 ;
198 [label="mse = 0.0\nsamples = 1\nvalue = 27.5", fillcolor="#f2c19e"] ;
196 -> 198 ;
199 [label="X[5] <= 76.5\nmse = 1.402\nsamples = 4\nvalue = 23.025", fillcolor="#f5d0b5"] ;
195 -> 199 ;
200 [label="X[2] <= 96.0\nmse = 0.222\nsamples = 3\nvalue = 23.667", fillcolor="#f5ceb2"] ;
199 -> 200 ;
201 [label="mse = 0.0\nsamples = 1\nvalue = 23.0", fillcolor="#f5d0b5"] ;
200 -> 201 ;
202 [label="mse = 0.0\nsamples = 2\nvalue = 24.0", fillcolor="#f5cdb0"] ;
200 -> 202 ;
203 [label="mse = 0.0\nsamples = 1\nvalue = 21.1", fillcolor="#f7d6bf"] ;
199 -> 203 ;
204 [label="X[1] <= 159.5\nmse = 4.71\nsamples = 14\nvalue = 19.95", fillcolor="#f7dac5"] ;
106 -> 204 ;
205 [label="X[2] <= 100.0\nmse = 2.96\nsamples = 11\nvalue = 20.736", fillcolor="#f7d8c1"] ;
204 -> 205 ;
206 [label="X[3] <= 2968.0\nmse = 2.333\nsamples = 6\nvalue = 21.8", fillcolor="#f6d4bc"] ;
205 -> 206 ;
207 [label="X[4] <= 15.75\nmse = 0.57\nsamples = 4\nvalue = 22.7", fillcolor="#f6d1b7"] ;
206 -> 207 ;
208 [label="mse = 0.0\nsamples = 2\nvalue = 22.0", fillcolor="#f6d3bb"] ;
207 -> 208 ;
209 [label="X[2] <= 86.5\nmse = 0.16\nsamples = 2\nvalue = 23.4", fillcolor="#f5cfb3"] ;
207 -> 209 ;
210 [label="mse = 0.0\nsamples = 1\nvalue = 23.8", fillcolor="#f5cdb1"] ;
209 -> 210 ;
211 [label="mse = 0.0\nsamples = 1\nvalue = 23.0", fillcolor="#f5d0b5"] ;
209 -> 211 ;
212 [label="X[5] <= 74.0\nmse = 1.0\nsamples = 2\nvalue = 20.0", fillcolor="#f7dac5"] ;
206 -> 212 ;
213 [label="mse = 0.0\nsamples = 1\nvalue = 21.0", fillcolor="#f7d7c0"] ;
212 -> 213 ;
214 [label="mse = 0.0\nsamples = 1\nvalue = 19.0", fillcolor="#f8ddca"] ;
212 -> 214 ;
215 [label="X[1] <= 125.5\nmse = 0.726\nsamples = 5\nvalue = 19.46", fillcolor="#f8dcc8"] ;
205 -> 215 ;
216 [label="X[3] <= 2900.5\nmse = 0.25\nsamples = 2\nvalue = 18.5", fillcolor="#f8dfcd"] ;
215 -> 216 ;
217 [label="mse = 0.0\nsamples = 1\nvalue = 19.0", fillcolor="#f8ddca"] ;
216 -> 217 ;
218 [label="mse = 0.0\nsamples = 1\nvalue = 18.0", fillcolor="#f9e1d0"] ;
216 -> 218 ;
219 [label="X[5] <= 77.0\nmse = 0.02\nsamples = 3\nvalue = 20.1", fillcolor="#f7dac5"] ;
215 -> 219 ;
220 [label="mse = 0.0\nsamples = 2\nvalue = 20.0", fillcolor="#f7dac5"] ;
219 -> 220 ;
221 [label="mse = 0.0\nsamples = 1\nvalue = 20.3", fillcolor="#f7d9c3"] ;
219 -> 221 ;
222 [label="X[2] <= 111.0\nmse = 0.542\nsamples = 3\nvalue = 17.067", fillcolor="#f9e4d5"] ;
204 -> 222 ;
223 [label="mse = 0.0\nsamples = 1\nvalue = 18.0", fillcolor="#f9e1d0"] ;
222 -> 223 ;
224 [label="X[4] <= 14.7\nmse = 0.16\nsamples = 2\nvalue = 16.6", fillcolor="#fae6d7"] ;
222 -> 224 ;
225 [label="mse = 0.0\nsamples = 1\nvalue = 17.0", fillcolor="#f9e4d5"] ;
224 -> 225 ;
226 [label="mse = -0.0\nsamples = 1\nvalue = 16.2", fillcolor="#fae7d9"] ;
224 -> 226 ;
227 [label="X[3] <= 2580.0\nmse = 18.559\nsamples = 48\nvalue = 29.888", fillcolor="#f1b991"] ;
105 -> 227 ;
228 [label="X[2] <= 96.0\nmse = 13.737\nsamples = 20\nvalue = 33.33", fillcolor="#eead7f"] ;
227 -> 228 ;
229 [label="X[4] <= 15.5\nmse = 9.322\nsamples = 19\nvalue = 33.837", fillcolor="#eeac7c"] ;
228 -> 229 ;
230 [label="X[4] <= 14.45\nmse = 7.558\nsamples = 13\nvalue = 34.946", fillcolor="#eda876"] ;
229 -> 230 ;
231 [label="X[4] <= 12.95\nmse = 3.968\nsamples = 7\nvalue = 33.257", fillcolor="#eeae7f"] ;
230 -> 231 ;
232 [label="X[5] <= 81.5\nmse = 1.0\nsamples = 2\nvalue = 31.0", fillcolor="#f0b58b"] ;
231 -> 232 ;
233 [label="mse = 0.0\nsamples = 1\nvalue = 30.0", fillcolor="#f0b990"] ;
232 -> 233 ;
234 [label="mse = 0.0\nsamples = 1\nvalue = 32.0", fillcolor="#efb286"] ;
232 -> 234 ;
235 [label="X[1] <= 93.5\nmse = 2.302\nsamples = 5\nvalue = 34.16", fillcolor="#eeab7b"] ;
231 -> 235 ;
236 [label="mse = 0.0\nsamples = 1\nvalue = 31.9", fillcolor="#efb286"] ;
235 -> 236 ;
237 [label="X[5] <= 81.5\nmse = 1.282\nsamples = 4\nvalue = 34.725", fillcolor="#eda978"] ;
235 -> 237 ;
238 [label="X[3] <= 2062.5\nmse = 0.987\nsamples = 3\nvalue = 34.3", fillcolor="#eeaa7a"] ;
237 -> 238 ;
239 [label="mse = 0.0\nsamples = 1\nvalue = 35.7", fillcolor="#eda672"] ;
238 -> 239 ;
240 [label="X[3] <= 2383.0\nmse = 0.01\nsamples = 2\nvalue = 33.6", fillcolor="#eead7d"] ;
238 -> 240 ;
241 [label="mse = 0.0\nsamples = 1\nvalue = 33.7", fillcolor="#eeac7d"] ;
240 -> 241 ;
242 [label="mse = 0.0\nsamples = 1\nvalue = 33.5", fillcolor="#eead7e"] ;
240 -> 242 ;
243 [label="mse = 0.0\nsamples = 1\nvalue = 36.0", fillcolor="#eca571"] ;
237 -> 243 ;
244 [label="X[1] <= 101.5\nmse = 4.535\nsamples = 6\nvalue = 36.917", fillcolor="#eca16c"] ;
230 -> 244 ;
245 [label="mse = 0.0\nsamples = 1\nvalue = 41.5", fillcolor="#e99254"] ;
244 -> 245 ;
246 [label="X[2] <= 90.0\nmse = 0.4\nsamples = 5\nvalue = 36.0", fillcolor="#eca571"] ;
244 -> 246 ;
247 [label="X[5] <= 81.0\nmse = 0.188\nsamples = 4\nvalue = 35.75", fillcolor="#eda572"] ;
246 -> 247 ;
248 [label="mse = 0.0\nsamples = 1\nvalue = 35.0", fillcolor="#eda876"] ;
247 -> 248 ;
249 [label="mse = 0.0\nsamples = 3\nvalue = 36.0", fillcolor="#eca571"] ;
247 -> 249 ;
250 [label="mse = 0.0\nsamples = 1\nvalue = 37.0", fillcolor="#eca16c"] ;
246 -> 250 ;
251 [label="X[1] <= 127.5\nmse = 4.702\nsamples = 6\nvalue = 31.433", fillcolor="#efb489"] ;
229 -> 251 ;
252 [label="X[4] <= 16.0\nmse = 1.342\nsamples = 5\nvalue = 32.28", fillcolor="#efb184"] ;
251 -> 252 ;
253 [label="mse = 0.0\nsamples = 1\nvalue = 34.3", fillcolor="#eeaa7a"] ;
252 -> 253 ;
254 [label="X[1] <= 110.0\nmse = 0.402\nsamples = 4\nvalue = 31.775", fillcolor="#efb387"] ;
252 -> 254 ;
255 [label="mse = 0.0\nsamples = 2\nvalue = 32.4", fillcolor="#efb184"] ;
254 -> 255 ;
256 [label="X[3] <= 2558.5\nmse = 0.023\nsamples = 2\nvalue = 31.15", fillcolor="#f0b58a"] ;
254 -> 256 ;
257 [label="mse = 0.0\nsamples = 1\nvalue = 31.3", fillcolor="#f0b48a"] ;
256 -> 257 ;
258 [label="mse = 0.0\nsamples = 1\nvalue = 31.0", fillcolor="#f0b58b"] ;
256 -> 258 ;
259 [label="mse = -0.0\nsamples = 1\nvalue = 27.2", fillcolor="#f2c29f"] ;
251 -> 259 ;
260 [label="mse = -0.0\nsamples = 1\nvalue = 23.7", fillcolor="#f5ceb2"] ;
228 -> 260 ;
261 [label="X[3] <= 2722.5\nmse = 7.491\nsamples = 28\nvalue = 27.429", fillcolor="#f2c19e"] ;
227 -> 261 ;
262 [label="X[1] <= 147.5\nmse = 4.577\nsamples = 16\nvalue = 28.631", fillcolor="#f1bd98"] ;
261 -> 262 ;
263 [label="X[4] <= 14.9\nmse = 4.354\nsamples = 9\nvalue = 29.744", fillcolor="#f1b992"] ;
262 -> 263 ;
264 [label="X[2] <= 98.0\nmse = 0.202\nsamples = 2\nvalue = 32.45", fillcolor="#efb084"] ;
263 -> 264 ;
265 [label="mse = 0.0\nsamples = 1\nvalue = 32.0", fillcolor="#efb286"] ;
264 -> 265 ;
266 [label="mse = -0.0\nsamples = 1\nvalue = 32.9", fillcolor="#eeaf81"] ;
264 -> 266 ;
267 [label="X[2] <= 76.5\nmse = 2.851\nsamples = 7\nvalue = 28.971", fillcolor="#f1bc96"] ;
263 -> 267 ;
268 [label="mse = 0.0\nsamples = 1\nvalue = 31.6", fillcolor="#efb388"] ;
267 -> 268 ;
269 [label="X[3] <= 2690.5\nmse = 1.982\nsamples = 6\nvalue = 28.533", fillcolor="#f1be98"] ;
267 -> 269 ;
270 [label="X[3] <= 2632.5\nmse = 0.18\nsamples = 4\nvalue = 27.6", fillcolor="#f2c19d"] ;
269 -> 270 ;
271 [label="mse = 0.0\nsamples = 2\nvalue = 28.0", fillcolor="#f2bf9b"] ;
270 -> 271 ;
272 [label="X[5] <= 80.5\nmse = 0.04\nsamples = 2\nvalue = 27.2", fillcolor="#f2c29f"] ;
270 -> 272 ;
273 [label="mse = 0.0\nsamples = 1\nvalue = 27.4", fillcolor="#f2c19e"] ;
272 -> 273 ;
274 [label="mse = -0.0\nsamples = 1\nvalue = 27.0", fillcolor="#f3c3a0"] ;
272 -> 274 ;
275 [label="X[3] <= 2715.5\nmse = 0.36\nsamples = 2\nvalue = 30.4", fillcolor="#f0b78e"] ;
269 -> 275 ;
276 [label="mse = 0.0\nsamples = 1\nvalue = 29.8", fillcolor="#f1b991"] ;
275 -> 276 ;
277 [label="mse = 0.0\nsamples = 1\nvalue = 31.0", fillcolor="#f0b58b"] ;
275 -> 277 ;
278 [label="X[5] <= 80.5\nmse = 1.223\nsamples = 7\nvalue = 27.2", fillcolor="#f2c29f"] ;
262 -> 278 ;
279 [label="X[3] <= 2689.0\nmse = 0.56\nsamples = 4\nvalue = 28.0", fillcolor="#f2bf9b"] ;
278 -> 279 ;
280 [label="X[2] <= 102.5\nmse = 0.107\nsamples = 3\nvalue = 28.4", fillcolor="#f2be99"] ;
279 -> 280 ;
281 [label="X[3] <= 2674.0\nmse = 0.04\nsamples = 2\nvalue = 28.2", fillcolor="#f2bf9a"] ;
280 -> 281 ;
282 [label="mse = 0.0\nsamples = 1\nvalue = 28.4", fillcolor="#f2be99"] ;
281 -> 282 ;
283 [label="mse = 0.0\nsamples = 1\nvalue = 28.0", fillcolor="#f2bf9b"] ;
281 -> 283 ;
284 [label="mse = 0.0\nsamples = 1\nvalue = 28.8", fillcolor="#f1bd97"] ;
280 -> 284 ;
285 [label="mse = 0.0\nsamples = 1\nvalue = 26.8", fillcolor="#f3c3a1"] ;
279 -> 285 ;
286 [label="X[4] <= 15.45\nmse = 0.116\nsamples = 3\nvalue = 26.133", fillcolor="#f3c6a5"] ;
278 -> 286 ;
287 [label="X[4] <= 14.45\nmse = 0.01\nsamples = 2\nvalue = 25.9", fillcolor="#f3c6a6"] ;
286 -> 287 ;
288 [label="mse = 0.0\nsamples = 1\nvalue = 25.8", fillcolor="#f3c7a7"] ;
287 -> 288 ;
289 [label="mse = 0.0\nsamples = 1\nvalue = 26.0", fillcolor="#f3c6a5"] ;
287 -> 289 ;
290 [label="mse = -0.0\nsamples = 1\nvalue = 26.6", fillcolor="#f3c4a2"] ;
286 -> 290 ;
291 [label="X[4] <= 12.0\nmse = 6.877\nsamples = 12\nvalue = 25.825", fillcolor="#f3c7a6"] ;
261 -> 291 ;
292 [label="mse = 0.0\nsamples = 1\nvalue = 32.7", fillcolor="#efb082"] ;
291 -> 292 ;
293 [label="X[2] <= 87.0\nmse = 2.815\nsamples = 11\nvalue = 25.2", fillcolor="#f4c9aa"] ;
291 -> 293 ;
294 [label="X[1] <= 162.0\nmse = 1.229\nsamples = 3\nvalue = 26.833", fillcolor="#f3c3a1"] ;
293 -> 294 ;
295 [label="X[1] <= 140.5\nmse = 0.303\nsamples = 2\nvalue = 27.55", fillcolor="#f2c19d"] ;
294 -> 295 ;
296 [label="mse = 0.0\nsamples = 1\nvalue = 27.0", fillcolor="#f3c3a0"] ;
295 -> 296 ;
297 [label="mse = 0.0\nsamples = 1\nvalue = 28.1", fillcolor="#f2bf9a"] ;
295 -> 297 ;
298 [label="mse = -0.0\nsamples = 1\nvalue = 25.4", fillcolor="#f4c8a9"] ;
294 -> 298 ;
299 [label="X[5] <= 79.5\nmse = 2.034\nsamples = 8\nvalue = 24.588", fillcolor="#f4cbad"] ;
293 -> 299 ;
300 [label="mse = 0.0\nsamples = 1\nvalue = 22.3", fillcolor="#f6d2b9"] ;
299 -> 300 ;
301 [label="X[4] <= 16.85\nmse = 1.47\nsamples = 7\nvalue = 24.914", fillcolor="#f4caab"] ;
299 -> 301 ;
302 [label="X[3] <= 2937.5\nmse = 0.292\nsamples = 4\nvalue = 24.175", fillcolor="#f5ccaf"] ;
301 -> 302 ;
303 [label="X[4] <= 13.2\nmse = 0.087\nsamples = 3\nvalue = 23.9", fillcolor="#f5cdb1"] ;
302 -> 303 ;
304 [label="mse = 0.0\nsamples = 1\nvalue = 23.5", fillcolor="#f5ceb3"] ;
303 -> 304 ;
305 [label="X[5] <= 81.5\nmse = 0.01\nsamples = 2\nvalue = 24.1", fillcolor="#f5ccaf"] ;
303 -> 305 ;
306 [label="mse = 0.0\nsamples = 1\nvalue = 24.2", fillcolor="#f4ccaf"] ;
305 -> 306 ;
307 [label="mse = -0.0\nsamples = 1\nvalue = 24.0", fillcolor="#f5cdb0"] ;
305 -> 307 ;
308 [label="mse = 0.0\nsamples = 1\nvalue = 25.0", fillcolor="#f4c9ab"] ;
302 -> 308 ;
309 [label="X[4] <= 19.1\nmse = 1.34\nsamples = 3\nvalue = 25.9", fillcolor="#f3c6a6"] ;
301 -> 309 ;
310 [label="X[4] <= 17.7\nmse = 0.09\nsamples = 2\nvalue = 26.7", fillcolor="#f3c4a2"] ;
309 -> 310 ;
311 [label="mse = 0.0\nsamples = 1\nvalue = 27.0", fillcolor="#f3c3a0"] ;
310 -> 311 ;
312 [label="mse = 0.0\nsamples = 1\nvalue = 26.4", fillcolor="#f3c5a3"] ;
310 -> 312 ;
313 [label="mse = -0.0\nsamples = 1\nvalue = 24.3", fillcolor="#f4ccae"] ;
309 -> 313 ;
314 [label="X[2] <= 127.0\nmse = 14.58\nsamples = 132\nvalue = 16.639", fillcolor="#fae5d7"] ;
0 -> 314 [labeldistance=2.5, labelangle=-45, headlabel="False"] ;
315 [label="X[5] <= 81.5\nmse = 12.26\nsamples = 58\nvalue = 19.484", fillcolor="#f8dcc8"] ;
314 -> 315 ;
316 [label="X[5] <= 75.5\nmse = 6.322\nsamples = 56\nvalue = 19.109", fillcolor="#f8ddca"] ;
315 -> 316 ;
317 [label="X[4] <= 16.75\nmse = 4.281\nsamples = 28\nvalue = 17.929", fillcolor="#f9e1d0"] ;
316 -> 317 ;
318 [label="X[1] <= 198.5\nmse = 2.681\nsamples = 19\nvalue = 18.947", fillcolor="#f8decb"] ;
317 -> 318 ;
319 [label="X[5] <= 71.5\nmse = 0.25\nsamples = 2\nvalue = 22.5", fillcolor="#f6d2b8"] ;
318 -> 319 ;
320 [label="mse = 0.0\nsamples = 1\nvalue = 22.0", fillcolor="#f6d3bb"] ;
319 -> 320 ;
321 [label="mse = 0.0\nsamples = 1\nvalue = 23.0", fillcolor="#f5d0b5"] ;
319 -> 321 ;
322 [label="X[3] <= 3315.5\nmse = 1.308\nsamples = 17\nvalue = 18.529", fillcolor="#f8dfcd"] ;
318 -> 322 ;
323 [label="X[2] <= 86.5\nmse = 0.827\nsamples = 15\nvalue = 18.8", fillcolor="#f8decb"] ;
322 -> 323 ;
324 [label="mse = 0.0\nsamples = 1\nvalue = 21.0", fillcolor="#f7d7c0"] ;
323 -> 324 ;
325 [label="X[5] <= 73.5\nmse = 0.515\nsamples = 14\nvalue = 18.643", fillcolor="#f8dfcc"] ;
323 -> 325 ;
326 [label="X[3] <= 3210.5\nmse = 0.21\nsamples = 10\nvalue = 18.3", fillcolor="#f9e0ce"] ;
325 -> 326 ;
327 [label="X[4] <= 13.25\nmse = 0.122\nsamples = 7\nvalue = 18.143", fillcolor="#f9e0cf"] ;
326 -> 327 ;
328 [label="mse = 0.0\nsamples = 1\nvalue = 19.0", fillcolor="#f8ddca"] ;
327 -> 328 ;
329 [label="mse = 0.0\nsamples = 6\nvalue = 18.0", fillcolor="#f9e1d0"] ;
327 -> 329 ;
330 [label="X[1] <= 241.0\nmse = 0.222\nsamples = 3\nvalue = 18.667", fillcolor="#f8dfcc"] ;
326 -> 330 ;
331 [label="mse = 0.0\nsamples = 1\nvalue = 18.0", fillcolor="#f9e1d0"] ;
330 -> 331 ;
332 [label="mse = 0.0\nsamples = 2\nvalue = 19.0", fillcolor="#f8ddca"] ;
330 -> 332 ;
333 [label="X[4] <= 14.75\nmse = 0.25\nsamples = 4\nvalue = 19.5", fillcolor="#f8dcc8"] ;
325 -> 333 ;
334 [label="mse = 0.0\nsamples = 1\nvalue = 20.0", fillcolor="#f7dac5"] ;
333 -> 334 ;
335 [label="X[5] <= 74.5\nmse = 0.222\nsamples = 3\nvalue = 19.333", fillcolor="#f8dcc9"] ;
333 -> 335 ;
336 [label="mse = 0.0\nsamples = 1\nvalue = 19.0", fillcolor="#f8ddca"] ;
335 -> 336 ;
337 [label="X[1] <= 228.5\nmse = 0.25\nsamples = 2\nvalue = 19.5", fillcolor="#f8dcc8"] ;
335 -> 337 ;
338 [label="mse = 0.0\nsamples = 1\nvalue = 19.0", fillcolor="#f8ddca"] ;
337 -> 338 ;
339 [label="mse = 0.0\nsamples = 1\nvalue = 20.0", fillcolor="#f7dac5"] ;
337 -> 339 ;
340 [label="X[2] <= 102.5\nmse = 0.25\nsamples = 2\nvalue = 16.5", fillcolor="#fae6d8"] ;
322 -> 340 ;
341 [label="mse = 0.0\nsamples = 1\nvalue = 17.0", fillcolor="#f9e4d5"] ;
340 -> 341 ;
342 [label="mse = 0.0\nsamples = 1\nvalue = 16.0", fillcolor="#fae8da"] ;
340 -> 342 ;
343 [label="X[1] <= 237.5\nmse = 0.84\nsamples = 9\nvalue = 15.778", fillcolor="#fae8db"] ;
317 -> 343 ;
344 [label="mse = 0.0\nsamples = 1\nvalue = 18.0", fillcolor="#f9e1d0"] ;
343 -> 344 ;
345 [label="X[4] <= 18.75\nmse = 0.25\nsamples = 8\nvalue = 15.5", fillcolor="#fbe9dd"] ;
343 -> 345 ;
346 [label="X[4] <= 17.5\nmse = 0.16\nsamples = 5\nvalue = 15.8", fillcolor="#fae8db"] ;
345 -> 346 ;
347 [label="X[3] <= 3558.5\nmse = 0.25\nsamples = 2\nvalue = 15.5", fillcolor="#fbe9dd"] ;
346 -> 347 ;
348 [label="mse = 0.0\nsamples = 1\nvalue = 15.0", fillcolor="#fbebdf"] ;
347 -> 348 ;
349 [label="mse = 0.0\nsamples = 1\nvalue = 16.0", fillcolor="#fae8da"] ;
347 -> 349 ;
350 [label="mse = 0.0\nsamples = 3\nvalue = 16.0", fillcolor="#fae8da"] ;
346 -> 350 ;
351 [label="mse = 0.0\nsamples = 3\nvalue = 15.0", fillcolor="#fbebdf"] ;
345 -> 351 ;
352 [label="X[1] <= 327.0\nmse = 5.577\nsamples = 28\nvalue = 20.289", fillcolor="#f7d9c4"] ;
316 -> 352 ;
353 [label="X[3] <= 3447.5\nmse = 4.071\nsamples = 26\nvalue = 19.942", fillcolor="#f7dac5"] ;
352 -> 353 ;
354 [label="X[4] <= 17.4\nmse = 1.941\nsamples = 15\nvalue = 21.26", fillcolor="#f7d6be"] ;
353 -> 354 ;
355 [label="X[4] <= 15.45\nmse = 0.833\nsamples = 11\nvalue = 20.755", fillcolor="#f7d8c1"] ;
354 -> 355 ;
356 [label="mse = 0.0\nsamples = 2\nvalue = 22.0", fillcolor="#f6d3bb"] ;
355 -> 356 ;
357 [label="X[3] <= 3372.5\nmse = 0.597\nsamples = 9\nvalue = 20.478", fillcolor="#f7d9c3"] ;
355 -> 357 ;
358 [label="X[1] <= 228.5\nmse = 0.158\nsamples = 5\nvalue = 20.06", fillcolor="#f7dac5"] ;
357 -> 358 ;
359 [label="X[2] <= 99.0\nmse = 0.036\nsamples = 3\nvalue = 20.333", fillcolor="#f7d9c3"] ;
358 -> 359 ;
360 [label="mse = 0.0\nsamples = 2\nvalue = 20.2", fillcolor="#f7d9c4"] ;
359 -> 360 ;
361 [label="mse = 0.0\nsamples = 1\nvalue = 20.6", fillcolor="#f7d8c2"] ;
359 -> 361 ;
362 [label="X[3] <= 3287.5\nmse = 0.062\nsamples = 2\nvalue = 19.65", fillcolor="#f8dbc7"] ;
358 -> 362 ;
363 [label="mse = 0.0\nsamples = 1\nvalue = 19.4", fillcolor="#f8dcc8"] ;
362 -> 363 ;
364 [label="mse = 0.0\nsamples = 1\nvalue = 19.9", fillcolor="#f7dac6"] ;
362 -> 364 ;
365 [label="X[5] <= 79.5\nmse = 0.655\nsamples = 4\nvalue = 21.0", fillcolor="#f7d7c0"] ;
357 -> 365 ;
366 [label="X[4] <= 16.35\nmse = 0.002\nsamples = 3\nvalue = 20.533", fillcolor="#f7d8c2"] ;
365 -> 366 ;
367 [label="mse = 0.0\nsamples = 1\nvalue = 20.6", fillcolor="#f7d8c2"] ;
366 -> 367 ;
368 [label="mse = 0.0\nsamples = 2\nvalue = 20.5", fillcolor="#f7d8c2"] ;
366 -> 368 ;
369 [label="mse = -0.0\nsamples = 1\nvalue = 22.4", fillcolor="#f6d2b8"] ;
365 -> 369 ;
370 [label="X[2] <= 85.5\nmse = 2.353\nsamples = 4\nvalue = 22.65", fillcolor="#f6d1b7"] ;
354 -> 370 ;
371 [label="mse = 0.0\nsamples = 1\nvalue = 24.0", fillcolor="#f5cdb0"] ;
370 -> 371 ;
372 [label="X[0] <= 7.0\nmse = 2.327\nsamples = 3\nvalue = 22.2", fillcolor="#f6d3b9"] ;
370 -> 372 ;
373 [label="X[4] <= 17.9\nmse = 1.323\nsamples = 2\nvalue = 21.35", fillcolor="#f6d6be"] ;
372 -> 373 ;
374 [label="mse = 0.0\nsamples = 1\nvalue = 22.5", fillcolor="#f6d2b8"] ;
373 -> 374 ;
375 [label="mse = -0.0\nsamples = 1\nvalue = 20.2", fillcolor="#f7d9c4"] ;
373 -> 375 ;
376 [label="mse = 0.0\nsamples = 1\nvalue = 23.9", fillcolor="#f5cdb1"] ;
372 -> 376 ;
377 [label="X[3] <= 3806.5\nmse = 1.379\nsamples = 11\nvalue = 18.145", fillcolor="#f9e0cf"] ;
353 -> 377 ;
378 [label="X[3] <= 3522.5\nmse = 0.584\nsamples = 9\nvalue = 18.567", fillcolor="#f8dfcd"] ;
377 -> 378 ;
379 [label="X[4] <= 16.5\nmse = 0.002\nsamples = 2\nvalue = 17.55", fillcolor="#f9e2d2"] ;
378 -> 379 ;
380 [label="mse = 0.0\nsamples = 1\nvalue = 17.5", fillcolor="#f9e3d2"] ;
379 -> 380 ;
381 [label="mse = -0.0\nsamples = 1\nvalue = 17.6", fillcolor="#f9e2d2"] ;
379 -> 381 ;
382 [label="X[3] <= 3648.0\nmse = 0.371\nsamples = 7\nvalue = 18.857", fillcolor="#f8decb"] ;
378 -> 382 ;
383 [label="X[5] <= 77.5\nmse = 0.179\nsamples = 6\nvalue = 18.667", fillcolor="#f8dfcc"] ;
382 -> 383 ;
384 [label="X[2] <= 88.0\nmse = 0.056\nsamples = 3\nvalue = 18.333", fillcolor="#f9e0ce"] ;
383 -> 384 ;
385 [label="mse = 0.0\nsamples = 1\nvalue = 18.0", fillcolor="#f9e1d0"] ;
384 -> 385 ;
386 [label="mse = 0.0\nsamples = 2\nvalue = 18.5", fillcolor="#f8dfcd"] ;
384 -> 386 ;
387 [label="X[3] <= 3612.5\nmse = 0.08\nsamples = 3\nvalue = 19.0", fillcolor="#f8ddca"] ;
383 -> 387 ;
388 [label="mse = 0.0\nsamples = 2\nvalue = 19.2", fillcolor="#f8ddc9"] ;
387 -> 388 ;
389 [label="mse = 0.0\nsamples = 1\nvalue = 18.6", fillcolor="#f8dfcc"] ;
387 -> 389 ;
390 [label="mse = 0.0\nsamples = 1\nvalue = 20.0", fillcolor="#f7dac5"] ;
382 -> 390 ;
391 [label="X[4] <= 16.45\nmse = 0.563\nsamples = 2\nvalue = 16.25", fillcolor="#fae7d9"] ;
377 -> 391 ;
392 [label="mse = 0.0\nsamples = 1\nvalue = 15.5", fillcolor="#fbe9dd"] ;
391 -> 392 ;
393 [label="mse = 0.0\nsamples = 1\nvalue = 17.0", fillcolor="#f9e4d5"] ;
391 -> 393 ;
394 [label="X[5] <= 80.0\nmse = 3.24\nsamples = 2\nvalue = 24.8", fillcolor="#f4caac"] ;
352 -> 394 ;
395 [label="mse = 0.0\nsamples = 1\nvalue = 23.0", fillcolor="#f5d0b5"] ;
394 -> 395 ;
396 [label="mse = -0.0\nsamples = 1\nvalue = 26.6", fillcolor="#f3c4a2"] ;
394 -> 396 ;
397 [label="X[1] <= 247.0\nmse = 64.0\nsamples = 2\nvalue = 30.0", fillcolor="#f0b990"] ;
315 -> 397 ;
398 [label="mse = 0.0\nsamples = 1\nvalue = 22.0", fillcolor="#f6d3bb"] ;
397 -> 398 ;
399 [label="mse = 0.0\nsamples = 1\nvalue = 38.0", fillcolor="#eb9e66"] ;
397 -> 399 ;
400 [label="X[5] <= 76.5\nmse = 5.081\nsamples = 74\nvalue = 14.409", fillcolor="#fbede3"] ;
314 -> 400 ;
401 [label="X[2] <= 191.5\nmse = 3.247\nsamples = 59\nvalue = 13.703", fillcolor="#fcefe6"] ;
400 -> 401 ;
402 [label="X[5] <= 70.5\nmse = 2.404\nsamples = 51\nvalue = 14.049", fillcolor="#fceee4"] ;
401 -> 402 ;
403 [label="X[1] <= 329.0\nmse = 1.806\nsamples = 6\nvalue = 15.833", fillcolor="#fae8db"] ;
402 -> 403 ;
404 [label="X[1] <= 311.0\nmse = 0.667\nsamples = 3\nvalue = 17.0", fillcolor="#f9e4d5"] ;
403 -> 404 ;
405 [label="X[4] <= 11.25\nmse = 0.25\nsamples = 2\nvalue = 16.5", fillcolor="#fae6d8"] ;
404 -> 405 ;
406 [label="mse = 0.0\nsamples = 1\nvalue = 17.0", fillcolor="#f9e4d5"] ;
405 -> 406 ;
407 [label="mse = 0.0\nsamples = 1\nvalue = 16.0", fillcolor="#fae8da"] ;
405 -> 407 ;
408 [label="mse = 0.0\nsamples = 1\nvalue = 18.0", fillcolor="#f9e1d0"] ;
404 -> 408 ;
409 [label="X[1] <= 345.0\nmse = 0.222\nsamples = 3\nvalue = 14.667", fillcolor="#fbece1"] ;
403 -> 409 ;
410 [label="mse = 0.0\nsamples = 1\nvalue = 14.0", fillcolor="#fceee5"] ;
409 -> 410 ;
411 [label="mse = 0.0\nsamples = 2\nvalue = 15.0", fillcolor="#fbebdf"] ;
409 -> 411 ;
412 [label="X[3] <= 4683.5\nmse = 2.003\nsamples = 45\nvalue = 13.811", fillcolor="#fcefe6"] ;
402 -> 412 ;
413 [label="X[5] <= 73.5\nmse = 1.838\nsamples = 39\nvalue = 14.038", fillcolor="#fceee4"] ;
412 -> 413 ;
414 [label="X[1] <= 334.0\nmse = 1.429\nsamples = 23\nvalue = 13.696", fillcolor="#fcefe6"] ;
413 -> 414 ;
415 [label="X[4] <= 13.75\nmse = 1.157\nsamples = 11\nvalue = 14.455", fillcolor="#fbede2"] ;
414 -> 415 ;
416 [label="X[5] <= 71.5\nmse = 0.857\nsamples = 7\nvalue = 15.0", fillcolor="#fbebdf"] ;
415 -> 416 ;
417 [label="mse = 0.0\nsamples = 1\nvalue = 14.0", fillcolor="#fceee5"] ;
416 -> 417 ;
418 [label="X[5] <= 72.5\nmse = 0.806\nsamples = 6\nvalue = 15.167", fillcolor="#fbeadf"] ;
416 -> 418 ;
419 [label="X[4] <= 12.0\nmse = 0.889\nsamples = 3\nvalue = 15.667", fillcolor="#fae9dc"] ;
418 -> 419 ;
420 [label="mse = 0.0\nsamples = 1\nvalue = 17.0", fillcolor="#f9e4d5"] ;
419 -> 420 ;
421 [label="mse = 0.0\nsamples = 2\nvalue = 15.0", fillcolor="#fbebdf"] ;
419 -> 421 ;
422 [label="X[1] <= 311.0\nmse = 0.222\nsamples = 3\nvalue = 14.667", fillcolor="#fbece1"] ;
418 -> 422 ;
423 [label="mse = 0.0\nsamples = 1\nvalue = 14.0", fillcolor="#fceee5"] ;
422 -> 423 ;
424 [label="mse = 0.0\nsamples = 2\nvalue = 15.0", fillcolor="#fbebdf"] ;
422 -> 424 ;
425 [label="X[3] <= 4087.5\nmse = 0.25\nsamples = 4\nvalue = 13.5", fillcolor="#fcf0e7"] ;
415 -> 425 ;
426 [label="mse = 0.0\nsamples = 2\nvalue = 14.0", fillcolor="#fceee5"] ;
425 -> 426 ;
427 [label="mse = 0.0\nsamples = 2\nvalue = 13.0", fillcolor="#fcf2ea"] ;
425 -> 427 ;
428 [label="X[3] <= 3742.5\nmse = 0.667\nsamples = 12\nvalue = 13.0", fillcolor="#fcf2ea"] ;
414 -> 428 ;
429 [label="mse = 0.0\nsamples = 1\nvalue = 11.0", fillcolor="#fef8f4"] ;
428 -> 429 ;
430 [label="X[5] <= 71.5\nmse = 0.331\nsamples = 11\nvalue = 13.182", fillcolor="#fcf1e9"] ;
428 -> 430 ;
431 [label="mse = 0.0\nsamples = 2\nvalue = 14.0", fillcolor="#fceee5"] ;
430 -> 431 ;
432 [label="X[2] <= 177.5\nmse = 0.222\nsamples = 9\nvalue = 13.0", fillcolor="#fcf2ea"] ;
430 -> 432 ;
433 [label="X[2] <= 172.5\nmse = 0.122\nsamples = 7\nvalue = 13.143", fillcolor="#fcf1e9"] ;
432 -> 433 ;
434 [label="mse = 0.0\nsamples = 5\nvalue = 13.0", fillcolor="#fcf2ea"] ;
433 -> 434 ;
435 [label="X[4] <= 11.5\nmse = 0.25\nsamples = 2\nvalue = 13.5", fillcolor="#fcf0e7"] ;
433 -> 435 ;
436 [label="mse = 0.0\nsamples = 1\nvalue = 13.0", fillcolor="#fcf2ea"] ;
435 -> 436 ;
437 [label="mse = 0.0\nsamples = 1\nvalue = 14.0", fillcolor="#fceee5"] ;
435 -> 437 ;
438 [label="X[2] <= 185.0\nmse = 0.25\nsamples = 2\nvalue = 12.5", fillcolor="#fdf3ed"] ;
432 -> 438 ;
439 [label="mse = 0.0\nsamples = 1\nvalue = 12.0", fillcolor="#fdf5ef"] ;
438 -> 439 ;
440 [label="mse = 0.0\nsamples = 1\nvalue = 13.0", fillcolor="#fcf2ea"] ;
438 -> 440 ;
441 [label="X[3] <= 4098.0\nmse = 2.015\nsamples = 16\nvalue = 14.531", fillcolor="#fbece2"] ;
413 -> 441 ;
442 [label="mse = 0.0\nsamples = 5\nvalue = 13.0", fillcolor="#fcf2ea"] ;
441 -> 442 ;
443 [label="X[4] <= 13.25\nmse = 1.38\nsamples = 11\nvalue = 15.227", fillcolor="#fbeade"] ;
441 -> 443 ;
444 [label="X[2] <= 145.0\nmse = 0.94\nsamples = 5\nvalue = 16.1", fillcolor="#fae7da"] ;
443 -> 444 ;
445 [label="mse = 0.0\nsamples = 1\nvalue = 17.5", fillcolor="#f9e3d2"] ;
444 -> 445 ;
446 [label="X[3] <= 4297.5\nmse = 0.562\nsamples = 4\nvalue = 15.75", fillcolor="#fae8db"] ;
444 -> 446 ;
447 [label="X[3] <= 4202.5\nmse = 0.562\nsamples = 2\nvalue = 15.25", fillcolor="#fbeade"] ;
446 -> 447 ;
448 [label="mse = 0.0\nsamples = 1\nvalue = 16.0", fillcolor="#fae8da"] ;
447 -> 448 ;
449 [label="mse = 0.0\nsamples = 1\nvalue = 14.5", fillcolor="#fbede2"] ;
447 -> 449 ;
450 [label="X[3] <= 4524.0\nmse = 0.062\nsamples = 2\nvalue = 16.25", fillcolor="#fae7d9"] ;
446 -> 450 ;
451 [label="mse = 0.0\nsamples = 1\nvalue = 16.5", fillcolor="#fae6d8"] ;
450 -> 451 ;
452 [label="mse = 0.0\nsamples = 1\nvalue = 16.0", fillcolor="#fae8da"] ;
450 -> 452 ;
453 [label="X[3] <= 4199.0\nmse = 0.583\nsamples = 6\nvalue = 14.5", fillcolor="#fbede2"] ;
443 -> 453 ;
454 [label="mse = 0.0\nsamples = 1\nvalue = 16.0", fillcolor="#fae8da"] ;
453 -> 454 ;
455 [label="X[5] <= 74.5\nmse = 0.16\nsamples = 5\nvalue = 14.2", fillcolor="#fbeee4"] ;
453 -> 455 ;
456 [label="mse = 0.0\nsamples = 3\nvalue = 14.0", fillcolor="#fceee5"] ;
455 -> 456 ;
457 [label="X[3] <= 4548.5\nmse = 0.25\nsamples = 2\nvalue = 14.5", fillcolor="#fbede2"] ;
455 -> 457 ;
458 [label="mse = 0.0\nsamples = 1\nvalue = 15.0", fillcolor="#fbebdf"] ;
457 -> 458 ;
459 [label="mse = 0.0\nsamples = 1\nvalue = 14.0", fillcolor="#fceee5"] ;
457 -> 459 ;
460 [label="X[3] <= 4826.0\nmse = 0.556\nsamples = 6\nvalue = 12.333", fillcolor="#fdf4ed"] ;
412 -> 460 ;
461 [label="mse = 0.0\nsamples = 2\nvalue = 13.0", fillcolor="#fcf2ea"] ;
460 -> 461 ;
462 [label="X[2] <= 158.5\nmse = 0.5\nsamples = 4\nvalue = 12.0", fillcolor="#fdf5ef"] ;
460 -> 462 ;
463 [label="mse = 0.0\nsamples = 1\nvalue = 11.0", fillcolor="#fef8f4"] ;
462 -> 463 ;
464 [label="X[3] <= 5047.5\nmse = 0.222\nsamples = 3\nvalue = 12.333", fillcolor="#fdf4ed"] ;
462 -> 464 ;
465 [label="mse = 0.0\nsamples = 2\nvalue = 12.0", fillcolor="#fdf5ef"] ;
464 -> 465 ;
466 [label="mse = 0.0\nsamples = 1\nvalue = 13.0", fillcolor="#fcf2ea"] ;
464 -> 466 ;
467 [label="X[1] <= 394.5\nmse = 3.0\nsamples = 8\nvalue = 11.5", fillcolor="#fdf7f2"] ;
401 -> 467 ;
468 [label="X[1] <= 305.5\nmse = 0.5\nsamples = 4\nvalue = 10.0", fillcolor="#fefcfa"] ;
467 -> 468 ;
469 [label="mse = 0.0\nsamples = 1\nvalue = 9.0", fillcolor="#ffffff"] ;
468 -> 469 ;
470 [label="X[4] <= 13.75\nmse = 0.222\nsamples = 3\nvalue = 10.333", fillcolor="#fefbf8"] ;
468 -> 470 ;
471 [label="mse = 0.0\nsamples = 1\nvalue = 11.0", fillcolor="#fef8f4"] ;
470 -> 471 ;
472 [label="mse = 0.0\nsamples = 2\nvalue = 10.0", fillcolor="#fefcfa"] ;
470 -> 472 ;
473 [label="X[4] <= 10.5\nmse = 1.0\nsamples = 4\nvalue = 13.0", fillcolor="#fcf2ea"] ;
467 -> 473 ;
474 [label="mse = 0.0\nsamples = 2\nvalue = 14.0", fillcolor="#fceee5"] ;
473 -> 474 ;
475 [label="mse = 0.0\nsamples = 2\nvalue = 12.0", fillcolor="#fdf5ef"] ;
473 -> 475 ;
476 [label="X[3] <= 3947.5\nmse = 2.624\nsamples = 15\nvalue = 17.187", fillcolor="#f9e4d4"] ;
400 -> 476 ;
477 [label="X[4] <= 13.3\nmse = 0.84\nsamples = 8\nvalue = 18.538", fillcolor="#f8dfcd"] ;
476 -> 477 ;
478 [label="X[3] <= 3807.5\nmse = 0.826\nsamples = 5\nvalue = 18.96", fillcolor="#f8decb"] ;
477 -> 478 ;
479 [label="X[4] <= 13.0\nmse = 0.187\nsamples = 3\nvalue = 19.6", fillcolor="#f8dbc7"] ;
478 -> 479 ;
480 [label="mse = 0.0\nsamples = 1\nvalue = 20.2", fillcolor="#f7d9c4"] ;
479 -> 480 ;
481 [label="X[1] <= 311.5\nmse = 0.01\nsamples = 2\nvalue = 19.3", fillcolor="#f8dcc9"] ;
479 -> 481 ;
482 [label="mse = 0.0\nsamples = 1\nvalue = 19.2", fillcolor="#f8ddc9"] ;
481 -> 482 ;
483 [label="mse = 0.0\nsamples = 1\nvalue = 19.4", fillcolor="#f8dcc8"] ;
481 -> 483 ;
484 [label="X[1] <= 332.5\nmse = 0.25\nsamples = 2\nvalue = 18.0", fillcolor="#f9e1d0"] ;
478 -> 484 ;
485 [label="mse = 0.0\nsamples = 1\nvalue = 17.5", fillcolor="#f9e3d2"] ;
484 -> 485 ;
486 [label="mse = 0.0\nsamples = 1\nvalue = 18.5", fillcolor="#f8dfcd"] ;
484 -> 486 ;
487 [label="X[4] <= 14.3\nmse = 0.069\nsamples = 3\nvalue = 17.833", fillcolor="#f9e1d0"] ;
477 -> 487 ;
488 [label="X[2] <= 147.0\nmse = 0.003\nsamples = 2\nvalue = 17.65", fillcolor="#f9e2d1"] ;
487 -> 488 ;
489 [label="mse = 0.0\nsamples = 1\nvalue = 17.6", fillcolor="#f9e2d2"] ;
488 -> 489 ;
490 [label="mse = 0.0\nsamples = 1\nvalue = 17.7", fillcolor="#f9e2d1"] ;
488 -> 490 ;
491 [label="mse = -0.0\nsamples = 1\nvalue = 18.2", fillcolor="#f9e0cf"] ;
487 -> 491 ;
492 [label="X[3] <= 4004.5\nmse = 0.194\nsamples = 7\nvalue = 15.643", fillcolor="#fae9dc"] ;
476 -> 492 ;
493 [label="mse = 0.0\nsamples = 1\nvalue = 16.5", fillcolor="#fae6d8"] ;
492 -> 493 ;
494 [label="X[1] <= 310.0\nmse = 0.083\nsamples = 6\nvalue = 15.5", fillcolor="#fbe9dd"] ;
492 -> 494 ;
495 [label="mse = 0.0\nsamples = 1\nvalue = 15.0", fillcolor="#fbebdf"] ;
494 -> 495 ;
496 [label="X[4] <= 11.25\nmse = 0.04\nsamples = 5\nvalue = 15.6", fillcolor="#fae9dc"] ;
494 -> 496 ;
497 [label="mse = 0.0\nsamples = 1\nvalue = 16.0", fillcolor="#fae8da"] ;
496 -> 497 ;
498 [label="mse = 0.0\nsamples = 4\nvalue = 15.5", fillcolor="#fbe9dd"] ;
496 -> 498 ;
}